index,alcohol,malic_acid,ash,alcalinity_of_ash,magnesium,total_phenols,flavanoids,nonflavanoid_phenols,proanthocyanins,color_intensity,hue,od280/od315_of_diluted_wines,proline
mod 1_1,0.5775360728849249,0.0,0.11899634443753944,-0.43694900365785944,0.0661238824548396,0.1786118435889186,0.3838512360922703,-0.10282087113895924,0.026718617536975683,0.0,0.0,0.31252382994247035,0.7525314347659321
mod 1_2,-0.6288726080243489,-0.23421817964198047,-0.22698993337362205,0.2575032663737314,-0.11308037542089941,0.0,0.037982256430447905,0.0,0.07166688699987633,-0.7514237979944801,0.34551593585896995,0.0477607412884765,-0.5405975547521207
mod 1_3,0.0,0.22759488581390827,0.07615141205535227,0.0,0.0,-0.1335480319146772,-0.5687929095140656,0.023352490773613715,-0.2773124252144828,0.4897431588769576,-0.5119367164151913,-0.5209510090912306,0.0
mod 2_1,0.5286557141481403,0.0,0.05626687081210213,-0.34394495606601505,0.07919704083734933,0.209382089161103,0.4692487878145889,-0.0032552537573344495,0.0,0.0,0.0,0.33925628730606233,0.8193872830760816
mod 2_2,-0.6718972298841571,-0.31376805192770585,-0.21898459883483626,0.0727010538049226,-0.10384045508884451,0.0,0.0,0.0,0.0,-0.68969742575491,0.32752505497321827,0.08956046754309988,-0.6330585431719733
mod 2_3,0.0,0.24714927052024996,0.11423536560074397,0.12098067406422956,0.0,-0.15356840815409054,-0.5916674692701566,0.004072172190334202,-0.13907592053640744,0.4587053763561995,-0.5046899686117357,-0.5490659379605951,0.0
mod 3_1,0.5262441493653989,0.0,0.09923596578232154,-0.37913592084096637,0.08456760900116073,0.2643196167158736,0.5189105871318448,-0.010128668127160534,0.0,0.0,0.03920275006415395,0.27179614935456237,0.7467088717933622
mod 3_2,-0.700858117060495,-0.28413860114522155,-0.240204820335809,0.19562461602979384,-0.05592355364124011,0.0,0.0,0.0,0.0,-0.6943669333327523,0.3212504709697395,0.025504840564818457,-0.5771150527298109
mod 3_3,0.0012760360266324217,0.3412891823820207,0.06722579075050866,0.0,0.0,-0.14771371783121626,-0.5661545986218938,0.013864672294499811,-0.1282792549203527,0.5103552057469191,-0.5420613440366968,-0.4685348596343933,0.0
mod 4_1,0.5533539939151207,0.0,0.13740514510278948,-0.35568858756849653,0.09107416355075965,0.22225141891534014,0.4330805590341949,-0.05209459967815168,0.025951780715562922,0.0,0.0,0.30077044255002255,0.7924050739000098
mod 4_2,-0.6427724341264294,-0.2115364061101798,-0.2571853174722939,0.07471737056109112,-0.051740675680543385,0.0,0.07720332361218313,0.0,0.0,-0.7697551366387639,0.3152649409055215,0.029619515154148145,-0.639722381905244
mod 4_3,0.0,0.264430105491384,0.0554474925042039,0.11919570711622393,0.0,-0.1649260751510638,-0.6004285610114166,0.13258699580694255,-0.14701956667662036,0.4833706434794205,-0.4958019959767671,-0.44767858057227244,0.0
mod 5_1,0.5962932114963752,0.0,0.09561639160845042,-0.39524494562682133,0.00356905373903125,0.17165753060509578,0.4081280535078282,-0.1209399200580783,0.0,0.0,0.045145338891223685,0.3052438782906081,0.7797506114197346
mod 5_2,-0.7659870629571219,-0.1514694009856429,-0.25124748345691966,0.1671623089373659,-0.11739944266613082,0.0,0.05349492530018616,0.0,0.12532089257699047,-0.6723720318736587,0.2582329971105357,0.08292147043868692,-0.5674866808442564
mod 5_3,0.0,0.18174446649045592,0.11927582516065605,0.05223776508915626,0.0,-0.11098776367460049,-0.6090836393033576,0.03172972468862187,-0.23710535905937977,0.48734543072020364,-0.48782048614029055,-0.5330861670118177,0.0
mod 6_1,0.48286467761971336,0.0,0.15905741134637733,-0.38769738679981525,0.11118096934151081,0.2178039843000897,0.45034807013659195,-0.056238486141434674,0.0,0.0,0.0,0.3333905248968087,0.7711147810272756
mod 6_2,-0.6566546575710989,-0.17469321655290734,-0.30676057560790976,0.18748296820422902,-0.13810975033121078,0.0,0.0,0.0,0.048922513466596505,-0.6794104257829567,0.4300344454107889,0.011228425687895036,-0.5757894221285939
mod 6_3,0.00567322464944058,0.27998755452738083,0.10772717465824012,0.03131361643890678,0.0,-0.12028028335729976,-0.5723429510213436,0.0,-0.19870496128286322,0.46985699948129395,-0.5739081376964168,-0.4870247693001563,0.0
mod 7_1,0.561594781546337,0.0,0.15530268611588824,-0.35874202081121503,0.06304608577028892,0.1973019554169018,0.4372006432643613,-0.0725212841756009,0.0,0.0,0.061014993405541416,0.39766041757093684,0.6941658741938055
mod 7_2,-0.7226657807287157,-0.16976279620839224,-0.279313261786736,0.09941571058152719,-0.07554967030070997,0.0,0.010644193000327833,0.0,0.0,-0.7265772153145736,0.28882938653005535,0.0,-0.5464308050245872
mod 7_3,0.0,0.2055431590915113,0.11555198214845293,0.10089527721848121,0.0,-0.15234867895734722,-0.5999781975535239,0.0,-0.12917364546735197,0.5098083870591775,-0.5385288842776775,-0.48565551125622086,0.0
mod 8_1,0.5610717080965621,0.0,0.08346682845187392,-0.42703863010116727,0.07744647444063896,0.21404923773635068,0.43442709501265253,-0.05739361161088088,0.0,0.0,0.036684329102989625,0.2812570002803174,0.7716246607007913
mod 8_2,-0.6596792722477107,-0.09427994695965,-0.3070638092638273,0.1493743601418906,-0.11013345835096498,0.0,0.029437600285079434,0.0,0.07583215463491252,-0.7412012215448085,0.3036796560905,0.09088252542854194,-0.6081417805605883
mod 8_3,0.0,0.15721852827942126,0.17667149835172533,0.0978065814572091,0.0,-0.17965951750651457,-0.5849058336065514,0.06197484040367469,-0.15568796226945114,0.5044530600404614,-0.5129915655136795,-0.5154491410045091,0.0
mod 9_1,0.4820135673384496,0.0,0.08784562453947478,-0.27782848114723385,0.3041150900399389,0.26191182298839216,0.4179671710352147,-0.007174675271015112,0.0,0.0,0.06934210955626141,0.33582186366311545,0.7933900231088978
mod 9_2,-0.663632871186118,-0.19957890774075518,-0.22351707864361123,0.046337356710206785,-0.3147166809171492,0.0,0.022619343421714525,0.0,0.12725470951536277,-0.6735826717658234,0.2767838851875848,0.0,-0.6431746429733783
mod 9_3,0.0,0.3028454549227547,0.07906383816701927,0.08645424296896942,0.0,-0.11271189485782601,-0.5955662133078474,0.03379671716134845,-0.19578444408262596,0.5504150083010431,-0.4754061348341924,-0.440603027975165,0.0
mod 10_1,0.5050038695801825,0.0,0.0650158494605077,-0.19795038216699803,0.24011626474807324,0.25413188887710814,0.38211964651461694,-0.11664641913036382,0.0,0.0,0.039246811894245594,0.4050272117324076,0.797983977881073
mod 10_2,-0.679777703049211,-0.2444650548002731,-0.18884756757781995,0.037895188088866716,-0.23016842469704288,0.0,0.0,0.0,0.002236445727304891,-0.6983405669287877,0.3156843691733689,0.0,-0.6213098220060617
mod 10_3,0.0,0.32232382396472903,0.08079750968443465,0.020038427784430476,0.0,-0.13989959595460197,-0.5853139052315804,0.0,-0.2092833591172413,0.4679494814323315,-0.5499753565566934,-0.44506616425823625,0.0
mod 11_1,0.5089863328940016,0.0,0.09491110166721148,-0.45195619940556864,0.08721801695792167,0.28096992012883615,0.4502516474985462,-0.02937371324418952,0.0,0.0,0.0,0.30960898111953944,0.7387545568579096
mod 11_2,-0.6372696385345594,-0.2061774421528053,-0.2909118667491912,0.18634129154541423,-0.16168402893736783,0.0,0.0,0.0,0.11830510416172814,-0.7197502806243563,0.32986742475471836,0.025323141289121186,-0.5826766450537891
mod 11_3,0.0,0.23529198689354092,0.11364829455607812,0.0724002924920662,0.0,-0.08718926853187352,-0.6050314175625616,0.0,-0.22319338322644292,0.49440195861926833,-0.46664098582051317,-0.5298109843469477,0.0
mod 12_1,0.5264755330988822,0.0,0.16869954456799172,-0.21393933860287534,0.19107665175077615,0.3118209442873317,0.4309410833657892,-0.13138822446456325,0.0,0.0,0.032426698727791844,0.34747530441416163,0.7301197093536381
mod 12_2,-0.664356285051614,-0.14017649660583636,-0.2797338990442534,0.012377711042296001,-0.20447195262527923,0.0,0.027497324994695115,0.0,0.059184395398963884,-0.7523222597745736,0.2676890438946361,0.0,-0.5874164212438314
mod 12_3,0.0,0.23862780009803466,0.10209620494627465,0.07326677013990343,0.0,-0.16747456081052733,-0.6269631516980665,0.0,-0.20188046261228954,0.4922700671179038,-0.4726258632100399,-0.47508655549872764,0.0
mod 13_1,0.4717597730169641,0.0,0.13670412134406892,-0.3531667128504514,0.07482970162095622,0.26661530540372075,0.502953192567472,-0.08441387145530982,0.01896804339437707,0.0,0.01563535059561861,0.2750956254971053,0.7565099186762548
mod 13_2,-0.6785090996944622,-0.2642757856691743,-0.2700826502091519,0.1109107113987693,-0.14783629575121587,0.0,0.0,0.0,0.0,-0.6846291037305707,0.2981042502254495,0.040692425579621674,-0.5853968599588804
mod 13_3,0.023357423280320252,0.3129988502581037,0.10278058189640436,0.06290120171166914,0.0,-0.0930519833277799,-0.5978674374902192,0.0,-0.17252357119684553,0.49349092461505367,-0.49766245589996677,-0.4878217300900688,0.0
mod 14_1,0.479301816948858,0.0,0.13802896588356986,-0.3308647841454844,0.17257722518938823,0.24065254843834444,0.39548996931508174,-0.10547445513524477,0.0,0.0,0.07675251381563863,0.3528643975484118,0.7960819286788957
mod 14_2,-0.6515169751187291,-0.07155134559704251,-0.332271058760503,0.13100327128510228,-0.24719460723168882,0.0,0.07145567259966101,0.0,0.06989380042093404,-0.6737026489511226,0.266461610634548,0.008698256912650585,-0.6483605205602087
mod 14_3,0.00934967485845068,0.18578432549092858,0.1790654811870543,0.0195041572145965,0.0,-0.20262427409809391,-0.6228925142031243,0.0,-0.1251946772324643,0.5011151383271629,-0.493265011146785,-0.5178765543061989,0.0
mod 15_1,0.5290371581360684,0.0,0.1034011084263463,-0.4687519455680326,0.12724558030381325,0.19141508030955862,0.418831119905691,-0.07727413061726221,0.0,0.0,0.0,0.30023713942421004,0.7488244721688628
mod 15_2,-0.6585684044289104,-0.18735043178391697,-0.2503628186340647,0.22817809438497672,-0.11808627625860899,0.0,0.0640255236416302,0.0,0.024008739082795872,-0.6851657502331088,0.38634483115166,0.12152103576650132,-0.5728336771625322
mod 15_3,0.0,0.22528747148936523,0.08571648035755548,0.016548974991175327,0.0,-0.18445493508406208,-0.61586188775608,0.04291031088761428,-0.18018699731653398,0.41838481661838395,-0.5248829147829503,-0.5625576378367154,0.0
mod 16_1,0.5221040384425935,0.0,0.09873014037648868,-0.37505484582622656,0.0949854649363571,0.2598250579086786,0.4611815749537242,-0.06389396451035036,0.0,0.0,0.00424124571551706,0.34562623260093545,0.736742454034326
mod 16_2,-0.7174436259387778,-0.070795095024227,-0.22775071811031505,0.17987164787622037,-0.11124449499865975,0.0,0.0113026930088754,0.0,0.02345957408876746,-0.7579502267183478,0.30010754491164066,0.05382548097013642,-0.5182928163361865
mod 16_3,0.0,0.14159088079347504,0.06829423089284398,0.019437272267293984,0.0,-0.12009565449898872,-0.6128353572114071,0.0,-0.19314039860787183,0.5273285259514057,-0.4912628927183468,-0.5553663480525423,0.0
mod 17_1,0.5178636794164093,0.0,0.16938317187819676,-0.40881535544409153,0.1086341900613299,0.1521021732055862,0.4265619422309228,-0.012235433187290423,0.04734581726521897,0.0,0.039662772756020356,0.34346190393668957,0.7887028668546314
mod 17_2,-0.6550888629151291,-0.1423104942664865,-0.2217505764889828,0.2189756618103062,-0.14974501214060462,0.0,0.00024021520109554617,0.0,0.0,-0.7374457483421722,0.2851486599234951,0.0782818541370008,-0.6197015438334484
mod 17_3,0.0,0.22164104380639751,0.037159086423498446,0.002757041580496299,0.0,-0.16843445804383259,-0.5437322557106491,0.0,-0.1702246232482477,0.5718360342081216,-0.46888864179870804,-0.5299820101877395,0.0
mod 18_1,0.4655177518373316,0.0,0.2350797953313154,-0.4046668454101432,0.16134485076065447,0.1301414471609519,0.41363595452651414,-0.04505356226851533,0.02823158015122533,0.0,0.0,0.3658403404268493,0.7886869128634226
mod 18_2,-0.6312790162606217,-0.2624949403304618,-0.29907971437193387,0.15443797021902117,-0.16638622399900302,0.0,0.07052259871700428,0.0,0.0,-0.6525293677069892,0.3808135792337074,0.03252463644594436,-0.6057274502069905
mod 18_3,0.0,0.28504599479480225,0.039373908065567675,0.07302737472320556,0.0,-0.1779735157477371,-0.6235973057754276,0.0,-0.11570400069880811,0.4664653057048612,-0.4712383634578952,-0.5306374659276722,0.0
mod 19_1,0.48849714929253907,0.0,0.1309126601489204,-0.42683866263147907,0.2534283086533566,0.1457327662943727,0.39104790575286236,0.0,0.09072263586580064,0.0,0.0,0.3325327051407552,0.7561931108589147
mod 19_2,-0.5925286267411548,-0.3555285528159166,-0.21792992324585744,0.15195829974574301,-0.2712238385936991,0.0,0.024232920462010976,0.0,0.0,-0.6858011908666664,0.3076866740615474,0.03962777990925746,-0.5699293539314859
mod 19_3,0.0,0.3394375098825279,0.07400403059005503,0.10507432634473775,0.0,-0.1534141550496114,-0.5599215059699828,0.0,-0.15124529304397955,0.48244254566986255,-0.4486872623545301,-0.5140120704910556,0.0
mod 20_1,0.44640273656158747,0.0,0.17048046700289465,-0.3945637345080874,0.0382438296844825,0.21599317357280345,0.5280692216114493,-0.04594621506828449,0.0,0.0,0.028947650721640204,0.31297188149222277,0.7775873735103768
mod 20_2,-0.6300226625607656,-0.1382682879764175,-0.36077085737126857,0.18266085827676345,-0.08554927256883052,0.0,0.0,0.0,0.0,-0.7388328574657295,0.3255438284789217,0.006592434242987207,-0.5887905248616688
mod 20_3,0.005042721915609169,0.21274704427876143,0.15467580465512432,0.02913588147763333,0.0,-0.13491042844331558,-0.6120722970781226,0.0,-0.11308241151636897,0.5101549028700747,-0.5310693803492423,-0.4946167626691798,0.0
mod 21_1,0.5232047105457527,0.0,0.15889820763733375,-0.3512249949454698,0.09984619799512082,0.22661919081619483,0.47559861835445805,-0.024705377175337016,0.0,0.0,0.03288615257557838,0.29078673542056144,0.7770131142959253
mod 21_2,-0.6488234208902516,-0.2666448032642333,-0.2721532424208559,0.14699189656329462,-0.10696841503852166,0.0,0.0,0.0,0.011633534482092214,-0.7323221237621146,0.32789706228440435,0.04621261343391998,-0.5800570282665423
mod 21_3,0.0,0.31900510299856083,0.06640151619642112,0.01812043060024479,0.0,-0.19137567016928064,-0.5613540668327559,0.0,-0.1499383253913574,0.4915202358425143,-0.5695381361523719,-0.4652517125612144,0.0
mod 22_1,0.5415999731590753,0.0,0.14758915836518866,-0.21467785114303325,0.21734744650456334,0.19904279571405722,0.42420844682990827,-0.033201835433427765,0.03228814065907994,0.0,0.08260800411332475,0.37314348749992265,0.7981319818931628
mod 22_2,-0.6627657205368372,-0.1921252974313803,-0.2798922876932162,0.001397085097664706,-0.25501458590081694,0.0,0.00540294228925532,0.0,0.0,-0.6949611345461414,0.29580380470222556,0.0,-0.6268927276215835
mod 22_3,0.0,0.1674427440019398,0.12225829914204014,0.07631955498264334,0.0,-0.18333309766306546,-0.5546618086468752,0.0,-0.1386891824165444,0.5310317565816713,-0.5469676039789038,-0.48325167756272236,0.0
mod 23_1,0.4628190649335677,0.0,0.08070359214463112,-0.24217530227954928,0.1299555376504999,0.34717717691484923,0.45230411182613595,-0.0953779715930042,0.0,0.0,0.010634907713270936,0.31296097592264155,0.8179859794531532
mod 23_2,-0.6136964259472956,-0.13311981661036892,-0.3060037860579954,0.06714378226432431,-0.2079083903136708,0.0,0.0,0.0,0.0772256245078267,-0.7107092837168635,0.2799942550044291,0.0353275453830114,-0.671623465193384
mod 23_3,0.0,0.2069868145998924,0.1804094796093339,0.03650041867649902,0.0,-0.1561337020642845,-0.5941202535589349,0.015766878328233636,-0.19881225124844762,0.507028930433567,-0.48162223583761077,-0.5051924210285081,0.0
mod 24_1,0.4774520078742634,0.0,0.10209967261845802,-0.24764795258003486,0.25963447764926995,0.21497095456938034,0.419828511045818,-0.1410954848466181,0.0,0.0,0.045783453564441315,0.38476037972978255,0.7913674058183009
mod 24_2,-0.6777261081484897,-0.14861604086082655,-0.23948920815121513,0.04226671850374376,-0.25639543441104223,0.0,0.02440583138476005,0.0,0.0015020441137021244,-0.7222477495922701,0.29468411998399346,0.0,-0.5904768238312642
mod 24_3,0.019250136831551655,0.237755815809379,0.13055261297856469,0.06772068277576863,0.0,-0.14801230855325817,-0.6162065493511456,0.02534548204955231,-0.13427269506465098,0.49375533400479815,-0.4680562450565187,-0.5013045284344553,0.0
mod 25_1,0.5689807240475121,0.0,0.08364869180266082,-0.3814571283661093,0.08355900069126598,0.3322550307372072,0.454877843685821,-0.03955252426985178,0.0,0.0,0.003035148764890669,0.24435158104776794,0.7362765877003433
mod 25_2,-0.6686599113592027,-0.11939691199125313,-0.26749504457580475,0.2529738506859841,-0.17021867390287196,0.0,0.0,0.0,0.1470529873264835,-0.7023349703284977,0.3096292522842809,0.11944932275620657,-0.5480372881181431
mod 25_3,0.0,0.20826860988646298,0.038848368337217005,0.0,0.0,-0.08390523455280341,-0.6049023175683269,0.0028675863143358374,-0.3339453214667363,0.4424032112061376,-0.4899582025720938,-0.5726858151104458,0.0
mod 26_1,0.4964535772423995,0.0,0.19451693117451052,-0.4003403741340127,0.13864979986590054,0.19208161772630375,0.4590098079512481,0.0,0.0,0.0,0.0,0.36283714366491576,0.7629242893063763
mod 26_2,-0.6695746411275112,-0.12078163315591209,-0.35282474706086114,0.15066986632423096,-0.18285328169232096,0.0,0.026143665977982913,0.0,0.0699792187527513,-0.6670699996237425,0.3545844394792327,0.004576629954614825,-0.5781627521316836
mod 26_3,0.008756530519897176,0.22393314420459182,0.14297448087652193,0.05989840504896305,0.0,-0.13747275706592238,-0.6207369842299993,0.038714214693494446,-0.1742767515746029,0.5017281835164,-0.48863141612256755,-0.46991379492273944,0.0
mod 27_1,0.504993726804354,0.0,0.1169732738398603,-0.31156528202664385,0.15476952802082705,0.1972209916271936,0.4183908060371595,-0.09679232194985576,0.0,0.0,0.03213296532326047,0.35989722249831185,0.8223888010556047
mod 27_2,-0.6346041761477088,-0.20478225726498603,-0.28985520827601835,0.07678942628647276,-0.20569975338215488,0.0,0.028912198551147614,0.0,0.0,-0.6965543177329152,0.2934930494384826,0.010090198185744305,-0.6629433611244653
mod 27_3,0.0,0.22554354901948906,0.1295590491047275,0.056920207287387434,0.0,-0.21302386761344244,-0.5930868545955865,0.0,-0.10610373427011875,0.47499257820193314,-0.5121482682705505,-0.5111673833206448,0.0
mod 28_1,0.533047297336845,0.0,0.1993050266852862,-0.23854900429643025,0.19170538992962766,0.20646274860725064,0.444125214968287,-0.043451015775838216,0.0,0.0,0.0166461015174346,0.4011429135095109,0.7728328256311957
mod 28_2,-0.6823358396565391,-0.27401183858029304,-0.24524667572442657,0.05584756636898911,-0.18293566359067814,0.0,0.0,0.0,0.028568487289623287,-0.7009016128280166,0.35432001494774185,0.053230176854034396,-0.5783105215803581
mod 28_3,0.0,0.26362784901956837,0.021622827514068757,0.028238390361820877,0.0,-0.17429882564570442,-0.529861794711906,0.03875195925119584,-0.14094713878409604,0.5109619804897426,-0.553463838108933,-0.5541241416580024,0.0
mod 29_1,0.592990337256156,0.0,0.0737962298469395,-0.4441626647083023,0.16370578355393908,0.23426346772177986,0.4022703018695518,0.0,0.0,0.0,0.0,0.28574587838693527,0.7657632353439632
mod 29_2,-0.6707074365040318,-0.1407527028767531,-0.23173175580418914,0.21806875115305396,-0.17538241987655445,0.0,0.07657668852112735,0.0,0.022109900741219136,-0.7083835711310246,0.30137260959382195,0.1658635149194521,-0.5851191045503213
mod 29_3,0.0,0.23674779284449918,0.09091765583746507,0.01585654927216183,0.0,-0.17285990295196582,-0.5764203778683658,0.07195514709533231,-0.14046083319957356,0.4567087548321103,-0.4504686856653821,-0.5897787168363735,0.0
mod 30_1,0.5238015548122947,0.0,0.17612444042080708,-0.3483737235185984,0.09911969497354527,0.1710236582143965,0.46400409957490635,-0.018250342224721577,0.0011283821395612211,0.0,0.011613403799702195,0.35296782150233624,0.7727132084865171
mod 30_2,-0.6806966306332783,-0.27758734397055373,-0.2944806208345316,0.09928581391413699,-0.04750551690012662,0.0,0.0,0.0,0.0,-0.7392885208670491,0.31916171889740763,0.022111034730606483,-0.5813422726546688
mod 30_3,0.0,0.3391811758108966,0.09341029425796615,0.07941512167324301,0.0,-0.12815753615988262,-0.5510533056346696,0.09031520017292376,-0.13056354995736497,0.5330657865228612,-0.49702851599408543,-0.463895498217325,0.0
mod 31_1,0.5345161784939676,0.0,0.16490012030985224,-0.3747399691813956,0.14673167839966295,0.2578585514996865,0.42898994049655426,0.0,0.0,0.0,0.0,0.3776408364846316,0.7153354483479916
mod 31_2,-0.6166237262407505,-0.14622923048878292,-0.3099498192974898,0.1671743395034375,-0.172394064664244,0.0,0.01851304081330048,0.0,0.06849704862623247,-0.7310262978853652,0.35591832573551174,0.0,-0.5808292554764096
mod 31_3,0.0,0.24958537120946364,0.11804990510562198,0.03667969856651159,0.0,-0.16694701712031387,-0.5979631542353883,0.0,-0.193697071744213,0.5042156438384713,-0.5035704142078113,-0.46495550090246407,0.0
mod 32_1,0.5216449986080776,0.0,0.14615419194217175,-0.3900444501218538,0.09287844613501235,0.19740815974818404,0.4449632703366623,-0.02366368310876338,0.07779434506879157,0.0,0.0,0.3512368416547421,0.7400502765759778
mod 32_2,-0.6285773662661488,-0.20748597373678482,-0.2737057187255969,0.14862548601278738,-0.12894004760796662,0.0,0.0,0.0,0.0,-0.78992961854533,0.3454267709892774,0.0,-0.510271066520778
mod 32_3,0.0,0.26503562563662775,0.08853823506375959,0.09279311927167189,0.0,-0.11758329752512053,-0.5646522596012296,0.04560900998781327,-0.1716099734007824,0.5396001207463474,-0.48615918350419046,-0.4907363277923845,0.0
mod 33_1,0.5402495694827614,0.0,0.2500309711367106,-0.38870036614821807,0.13382143388595372,0.13330542464766892,0.43005103718675824,0.0,0.01582223864090831,0.0,0.04761260854080845,0.3100162415383014,0.7835321894715693
mod 33_2,-0.6295418948163978,-0.21013938816545993,-0.3678889624510423,0.16533352767314866,-0.16218156093266864,0.04216169843597168,0.09003729697793149,0.0,0.01144096665530427,-0.6612078318323968,0.24866595711435094,0.04974562402849933,-0.6413734571913924
mod 33_3,0.0,0.2743751570492761,0.11589678388882595,0.0660370010411787,0.0,-0.26473642224244864,-0.6114915528429956,0.0,-0.1690023672558644,0.47873254533513177,-0.4341056926316953,-0.45761933012918216,0.0
mod 34_1,0.5441215373877559,0.0,0.05457388191338641,-0.3793079313260373,0.1360605558698602,0.19995343262242363,0.49666402967553286,-0.01799776652263625,0.0,0.0,0.05701867590175796,0.26781573428342187,0.7953614999064563
mod 34_2,-0.767474643895515,-0.1763233893267942,-0.203466683488386,0.1016775778547419,-0.13251735660293992,0.0,0.0,0.0,0.0038635043507984686,-0.6684517751098823,0.2882635874602925,0.1025902598285183,-0.6120129214802705
mod 34_3,0.021135661290292485,0.26227891069503534,0.10923330811145908,0.10826430941524584,0.0,-0.1014677395223095,-0.6050899726669771,0.061173040597128664,-0.11553179520385366,0.48833924011648827,-0.5163670591525225,-0.5001560036797232,0.0
mod 35_1,0.5716545488856103,0.0,0.16588773149814365,-0.3476052045500976,0.11857989535782607,0.18834608328183805,0.48146099468604764,-0.006419455972354221,0.0,0.0,0.021639975418699862,0.3222370418053701,0.762301327616836
mod 35_2,-0.7572113322417402,-0.018878692699746444,-0.2733181115954805,0.13267555619648294,-0.12564755820195267,0.0,0.009995661887131198,0.0,0.04677299337871363,-0.7275941810047394,0.33369718525930486,0.07595711791676739,-0.5238166594006669
mod 35_3,0.0,0.18323525804457483,0.03404584590269077,0.0,0.0,-0.1317080807690511,-0.6189233251548644,0.0,-0.2030031295268846,0.4932031034449276,-0.5155335138935757,-0.5582952460487881,0.0
mod 36_1,0.5141088795002001,0.0,0.10370543421146093,-0.3587043716384389,0.1562286191418941,0.22837150497458902,0.5322410101079655,0.0,0.03970034747860654,0.0,0.0,0.30303789793257474,0.7391445338451876
mod 36_2,-0.6464320380278803,-0.13241723863573573,-0.24498295180772772,0.19709947800250263,-0.2137444188243268,0.0,0.0,0.0,0.0,-0.709989207492258,0.39420319056807723,0.047381848513017716,-0.5341431930376088
mod 36_3,0.0,0.23736149898400905,0.08807103577833003,0.0,0.0,-0.12670164062957778,-0.6021682172181607,0.0,-0.15298938769426063,0.47394805034872717,-0.5647987479567586,-0.5150975570314532,0.0
mod 37_1,0.5231383087789621,0.0,0.0933757227824871,-0.36491818589587804,0.08785161028393776,0.13252694916139307,0.44372073908616433,-0.01618743778299675,0.03807167413260642,0.0,0.0,0.35195144894724484,0.8390544187843493
mod 37_2,-0.68916255751395,-0.25202233066675794,-0.25258734569246305,0.08687814914147343,-0.11615083568252411,0.0,0.0,0.0,0.0,-0.6847358676557064,0.30302932259139165,0.12072902142170903,-0.6436402954695218
mod 37_3,0.0,0.2904876424196758,0.11223774675563268,0.12834914138901554,0.0,-0.095183221171326,-0.5569639877978064,0.044098736453191685,-0.1021404867898261,0.49499434558948785,-0.46591711606359737,-0.5773199113134984,0.0
mod 38_1,0.5914431729647854,0.0,0.15503871809686018,-0.36458568781787604,0.06564361008754861,0.21375700990989588,0.4746993921025624,-0.022837046205029746,0.0,0.0,0.09077047758885944,0.29289034111378404,0.7228211428812844
mod 38_2,-0.69176656621872,-0.23049253010881046,-0.3107650450403886,0.09475342904860307,-0.13240417097632073,0.0,0.0,0.0,0.0016510392491931021,-0.7335723155354711,0.22485835794366105,0.09570132417424232,-0.5486228033126362
mod 38_3,0.0,0.24257676080881738,0.13456047679829952,0.12325630621247886,0.0,-0.16227605188698654,-0.557626995482197,0.0,-0.1557124313053488,0.4955278347244655,-0.4730498477230856,-0.5335029921527036,0.0
mod 39_1,0.5925284657482061,0.0,0.028154565573729085,-0.43066276871889386,0.13923165477793736,0.20427344115312915,0.4327016712252623,-0.01471819181778371,0.0,0.0,0.0,0.32507589234998346,0.7571660371549332
mod 39_2,-0.7558569361234461,-0.12056643054134634,-0.21037626555139316,0.20057945105873073,-0.16104315597089466,0.0,0.040669362595850266,0.0,0.020265344736268717,-0.6842873000036426,0.34485093630113156,0.06992371244090548,-0.5373144821125715
mod 39_3,0.0,0.2599022320493798,0.1098168777679099,0.02244055340695147,0.0,-0.12188373520965118,-0.5985928910872482,0.0,-0.16396841378462915,0.4609187465023329,-0.5250469996329609,-0.5356134666901615,0.0
mod 40_1,0.4722222401693104,0.0,0.11440708834313798,-0.3680273022724812,0.14102574603808415,0.22681691728023792,0.47401214840117084,-0.051306187234373246,0.0,0.0,0.0,0.34506185901214814,0.757943912229689
mod 40_2,-0.6664509951954644,-0.1196527968116257,-0.2775615121715999,0.12828100873481632,-0.145314633977055,0.0,0.05023564003617619,0.0,0.0,-0.6625379728059454,0.35004873307836015,0.04817904673499969,-0.6316932654322858
mod 40_3,0.022941320362292496,0.17840515118645084,0.13757569517022475,0.06512596983175414,0.0,-0.16920219025912053,-0.6372454105219183,0.012456680593083237,-0.12276234655523677,0.4773420404404531,-0.4795534601442683,-0.5314038311825223,0.0
mod 41_1,0.5198406133622974,0.0,0.10395902957091453,-0.4327790524150948,0.16727250624132803,0.18685344153241673,0.41552017111672324,-0.0010129438827178705,0.0,0.0,0.0,0.37157689522974763,0.7610724589957043
mod 41_2,-0.6510538576718529,-0.05185923534931828,-0.24107401781547455,0.2252714728438527,-0.22968273360612632,0.0,0.08614202173797643,0.0,0.004721119147520647,-0.6941679750835675,0.4077859870100665,0.011586048584749948,-0.598607738934888
mod 41_3,0.0,0.10787142719995275,0.10127908814823983,0.03129873110373338,0.0,-0.1731045684704372,-0.5987234523446417,0.0,-0.11495344623942387,0.5408259483320603,-0.5437648838425911,-0.5118232675901495,0.0
mod 42_1,0.5547708074192197,0.0,0.07101076219709995,-0.3880497428745893,0.08897593810982247,0.1790534590105196,0.42539970926455584,-0.07628047906191168,0.0,0.0,0.0,0.3122411333010228,0.8114213991538587
mod 42_2,-0.6857536483303339,-0.24097456083665805,-0.2234665201463602,0.06937869029258925,-0.04207223239484205,0.0,0.06834428236962525,0.0,0.0,-0.7492055714081778,0.30871393868624436,0.048631291211634974,-0.62440730050929
mod 42_3,0.0,0.264435962847003,0.10782930192562687,0.1469263775814287,0.0,-0.2519639565625029,-0.56718558696376,0.10080222147024184,-0.10973799247295733,0.49016370575182544,-0.47785756009516717,-0.4633411066644067,0.0
mod 43_1,0.47240869708944766,0.0,0.0885411752885161,-0.34289490248737964,0.08048510758331621,0.22514464875024776,0.5074090417705256,0.0,0.0,0.0,0.0,0.3356892650381773,0.8182037104048286
mod 43_2,-0.6078161143420532,-0.26693483291286924,-0.29037538635861704,0.15192802538493072,-0.059104809703075065,0.0,0.0,0.0,0.012122432236630391,-0.7356118041585433,0.28873131684881753,0.03038907798733316,-0.6300244720974553
mod 43_3,0.0,0.26699739734587413,0.1330253614698488,0.043218867155497394,0.0,-0.10706731934437544,-0.5802923973279457,0.04087624040204486,-0.16151245517079102,0.5355465534120666,-0.48295749216492095,-0.5074754551597664,0.0
mod 44_1,0.5208625550022554,0.0,0.13655571355952262,-0.2533708493607706,0.20395688878026016,0.15499997911564523,0.40270116376847437,-0.10375226545835906,0.0062266963009546435,0.0,0.09354414157486651,0.3709297310945303,0.8340923057895792
mod 44_2,-0.6498624730721015,-0.20182757256950415,-0.21459058449807375,0.054816464355137054,-0.2597571412129273,0.0,0.06824283881475061,0.0,0.0,-0.7201010697879416,0.2465033158600355,0.026937867352450132,-0.6397793760708484
mod 44_3,0.0,0.25142181298058847,0.06165462193239949,0.051704802834121745,0.010832256118784953,-0.17285802786944324,-0.5922822447039231,0.008084926085832117,-0.16396065865681572,0.5007680626898247,-0.4646352420387723,-0.5223270104196941,0.0
mod 45_1,0.527357489701837,0.0,0.10663953876131696,-0.363602182937563,0.15988837465528227,0.2674338405483517,0.4332082682720083,-0.0654733443994013,0.0,0.0,0.08200440437558769,0.2987331848757446,0.737485532897203
mod 45_2,-0.6564409993997093,-0.13538834351843282,-0.2678683839830139,0.09662916873273955,-0.18895678565294216,0.0,0.0,0.0,0.022689126131830974,-0.7464012605005502,0.3151136164354823,0.0371613290556009,-0.59110403895798
mod 45_3,0.0,0.1802628433764211,0.11061796588766429,0.07642635355909398,0.0,-0.11529603206962846,-0.5923395696742203,0.0,-0.14178009731412927,0.5095953194204923,-0.5513146187923188,-0.5152107699034201,0.0
mod 46_1,0.46764144882379866,0.0,0.2610999894102538,-0.3843338887770043,0.101316817306725,0.18710532035125013,0.4552623097443845,-0.04853056165576667,7.477462871475494e-06,0.0,0.04778657203816898,0.31330397740627813,0.7757233089013367
mod 46_2,-0.5802511314849734,-0.17171376510634073,-0.37012390753426966,0.22289477403842,-0.10394028218270196,0.0,0.013436715264079566,0.0,0.0,-0.710832556782934,0.305953433140863,0.09831727566352258,-0.5994400536022069
mod 46_3,0.0,0.25441224386650313,0.045620830282688866,0.0,0.0,-0.10145643670256597,-0.5938930910537147,0.0,-0.13869214334205635,0.5061165649140928,-0.5521104836220351,-0.5355821280543742,0.0
mod 47_1,0.49389344167680393,0.0,0.010872045613152727,-0.3916430521907946,0.09514293970837139,0.263670534388387,0.43189366658168166,-0.08015636566791207,0.1337776395073656,0.0,0.0,0.31128402629189456,0.7479682222207591
mod 47_2,-0.601017145335575,-0.24427956819964042,-0.16247723979112205,0.2099181121057691,-0.15166085474055668,0.0,0.005270417707470575,0.0,0.0,-0.7702194531440724,0.36004005665180294,0.03550232389463848,-0.5404731365758884
mod 47_3,0.0,0.27554274561327374,0.061648179146955424,0.0,0.0,-0.13667563267411537,-0.571910392701178,0.0,-0.2222088356846153,0.4816215680508272,-0.539673899352846,-0.5161347248036199,0.0
mod 48_1,0.5164775819581823,0.0,0.10507556769797981,-0.2287449707865916,0.19599652947987287,0.30594958453885246,0.4706946575795185,-0.09188494883136435,0.006821036841083115,0.0,0.03393080092303979,0.34649312892902195,0.747141728773705
mod 48_2,-0.6828262031795312,-0.12780590951282944,-0.2874058495505498,0.10274456795323275,-0.2115274422146422,0.0,0.0,0.0,0.026726170994760472,-0.7238265181243528,0.2962295248234059,0.06982241015780237,-0.5780878550188537
mod 48_3,0.0,0.23426867799170262,0.09335567791868944,0.0,0.0,-0.08733828825164405,-0.5883935858221551,0.07633170725854906,-0.1958068770830897,0.49731744394560495,-0.5169883921201175,-0.537790014972214,0.0
mod 49_1,0.5316765593011233,0.0,0.14783774177170306,-0.30577513956646557,0.1841072681197521,0.24933983205170523,0.4130937326535712,-0.10041907842823995,0.0,0.0,0.0,0.3571531433492541,0.7620367300110185
mod 49_2,-0.657507086907321,-0.21936714464634866,-0.2565307434732716,0.1277131285305518,-0.12301089680926595,0.0,0.03662974573325322,0.0,0.055863576018153345,-0.7810830742060444,0.2945038740791694,0.0,-0.5736073695364774
mod 49_3,0.0,0.3058892483331591,0.04079606649333478,0.0070572315708794355,0.0,-0.18831681112088608,-0.5595461794001348,0.08377780288175601,-0.23219794560893534,0.5114364736489599,-0.49764630001131344,-0.4795968292617314,0.0
mod 50_1,0.5414945067050916,0.0,0.20955186454559288,-0.3811439990675601,0.07116438413992623,0.1579513772663592,0.4439872048477982,-0.026397197120322274,0.0,0.0,0.08655676999571274,0.2726896732974312,0.7974930328442694
mod 50_2,-0.5879353097938508,-0.11030530819847675,-0.42254264408905984,0.15613427806669652,-0.09040732636707076,0.0,0.05498202746606629,0.0,0.0,-0.6787460598063013,0.2210932187163398,0.19016251022409555,-0.6488384805135687
mod 50_3,0.0,0.13749481940707375,0.18470599544569194,0.06697902192359012,0.0,-0.20625977270036294,-0.5973386390572837,0.07178871360917281,-0.10533400750584188,0.4773324512944465,-0.46111258442879005,-0.5586976466617283,0.0
mod 51_1,0.5389182111351886,0.0,0.1746218022349611,-0.38493460299593946,0.09424454199670709,0.21054632043638488,0.4730973299054398,-0.01319459313954159,0.004153609911368528,0.0,0.061010436027190244,0.3128509237187704,0.7344046340923153
mod 51_2,-0.6112863201166231,-0.16198998197312656,-0.33357789442152347,0.12654464167208815,-0.09186208457428377,0.0,0.0,0.0,0.0,-0.7840772671985508,0.3072943808074465,0.0,-0.5962818227198635
mod 51_3,0.0,0.2118807542585528,0.10208991154070252,0.10984562567931062,0.0,-0.08694811524057917,-0.6193364674007015,0.04409671402985182,-0.11257656930674809,0.5711446714613998,-0.5434766696650903,-0.4103646092498889,0.0
mod 52_1,0.5811980820289329,0.0,0.07450513381374732,-0.40653787910980926,0.039249272628408494,0.23019428189520424,0.4610655996164643,-0.13014664005911966,0.0,0.0,0.0,0.33899257813944544,0.7004013035901464
mod 52_2,-0.7580079519972734,-0.09116925168960743,-0.2175837551289206,0.1422976489553658,-0.04929864068939309,0.0,0.0,0.0,0.029905845643317393,-0.722930746321372,0.3622892251595385,0.0,-0.5392257561360766
mod 52_3,0.0,0.17892901533007893,0.08693983960826211,0.0548808561356672,0.0,-0.187890101678566,-0.5727297087996558,0.0,-0.17328590761108179,0.5083695261595355,-0.5942688985703047,-0.46260262313558176,0.0
mod 53_1,0.4738705144550136,0.0,0.21693325493336832,-0.390763488594552,0.07841333496385153,0.177283451954689,0.3989524171056244,-0.08556962663334268,0.0,0.0,0.0,0.39964144785811706,0.7754167247097653
mod 53_2,-0.6071526701964035,-0.22290414841138534,-0.38218250825391575,0.20162918390975137,-0.13570904702018471,0.0,0.0436182675417427,0.0,0.04754213916139274,-0.6639500789559754,0.3419051232237726,0.0,-0.5612312244552553
mod 53_3,0.0,0.2787657412819223,0.14341590578595195,0.021588000685245363,0.0,-0.16029303130315115,-0.5976775366433117,0.013847793983748764,-0.16010391142008457,0.47372526120838027,-0.5226025588533525,-0.48932879513718536,0.0
mod 54_1,0.5166345271618441,0.0,0.026513105660866565,-0.283217887261768,0.18122867554119568,0.2348676042313931,0.38888659728822245,-0.13437373659499055,0.0,0.0,0.09342762283636112,0.31658588676919786,0.8056009994779745
mod 54_2,-0.6439057774071364,-0.1346212740117715,-0.19230671509779304,0.06835528133023751,-0.23983491219308228,0.0,0.052261574516479344,0.0,0.0,-0.7342764413318351,0.24799349247058247,0.08466958346485773,-0.6544873608483126
mod 54_3,0.0,0.16855176015737697,0.11874133068881036,0.04099240754256642,0.014935499247665476,-0.12839009477189078,-0.6110988640276445,0.0,-0.13030520963534903,0.5159250069178967,-0.48371164388084226,-0.5827171373715092,0.0
mod 55_1,0.4867645285357098,0.0,0.14192005185501436,-0.35615153264577737,0.17522791283557507,0.18312683445317,0.47857777081048475,-0.04370145184193205,0.08450742957183591,0.0,0.012729647036176656,0.36624081750938736,0.7110935841049947
mod 55_2,-0.5911687827115543,-0.1310277336957223,-0.35154149803077384,0.1524075705918633,-0.19832880610664202,0.0,0.0,0.0,0.0,-0.7667074214306312,0.3355637475061521,0.0014779723701089061,-0.5484279636810897
mod 55_3,0.0,0.19841266638393845,0.1993539407883827,0.056889973646233855,0.0,-0.19090897105924357,-0.5588585120196862,0.0,-0.13743436117481087,0.5344704682793706,-0.5304060060821015,-0.49462512503349443,0.0
mod 56_1,0.49596436897276347,0.0,0.21383744491150314,-0.2382845333951216,0.19943518314554368,0.19073103294760838,0.434965015683269,-0.06134490692248104,0.0,0.0,0.05100503372505971,0.3770634680456919,0.8190557541770052
mod 56_2,-0.6743976842237408,-0.21508640418145383,-0.33293854846167414,0.015428569152725974,-0.23282107421246234,0.0,0.0,0.0,0.029705572353164667,-0.6597451305922319,0.2994974434784331,0.02005424044210709,-0.6098827035646534
mod 56_3,0.0,0.31574778506332046,0.09493749064912438,0.07430896852229456,0.0,-0.11329124364421615,-0.5556209873861548,0.0,-0.1608012793451241,0.49280621292035043,-0.5116168377517444,-0.5127878592060794,0.0
mod 57_1,0.48774295739891516,0.0,0.1469627457805904,-0.372179569041189,0.1511687250484517,0.2302958822686895,0.45214560185924324,-0.06202039077879528,0.0,0.0,0.014161562693300761,0.31359814267980307,0.7582324495384255
mod 57_2,-0.6485321764794215,-0.15852579846746206,-0.28896008567350706,0.14744751571499334,-0.11622618159546383,0.0,0.06048570568654339,0.0,0.0,-0.6965601223899515,0.3121573379599012,0.07107108547416818,-0.6164574160199594
mod 57_3,0.0,0.19515521221493173,0.10481064841532792,0.04990972068991821,0.0,-0.2032496965000101,-0.6161247300079336,0.030790494354651806,-0.12655682532484053,0.5008537545235829,-0.5333754203646447,-0.49367919997801746,0.0
mod 58_1,0.5194397288673084,0.0,0.2099846177648307,-0.27515117979031967,0.1624429382366373,0.18489283673895046,0.422004834508033,-0.053850436566251374,0.0277959694897333,0.0,0.08009084259868306,0.38039442148843305,0.7829413019006094
mod 58_2,-0.7051183304069032,-0.30753691938830957,-0.2818358925151311,0.04325961352044949,-0.20582995007423432,0.0,0.0,0.0,0.0,-0.6851889146616225,0.23176264521194256,0.030355784553165437,-0.6014443097202541
mod 58_3,0.0,0.29952800797501666,0.07169172256508707,0.0713464418548057,0.0,-0.15315268855816658,-0.5656665274563741,0.0,-0.16265605674791908,0.4989704213372433,-0.48064862569677963,-0.5260333835101805,0.0
mod 59_1,0.5028841956782736,0.0,0.019539787447290242,-0.38540999070404924,0.23614090262807083,0.10407740184661048,0.40448376873773556,-0.050939341183277136,0.03743899372209341,0.0,0.007733765557253765,0.42626437269342027,0.7580091010807922
mod 59_2,-0.6672175127371575,-0.2290018736638118,-0.12920568349937375,0.12727700311941448,-0.24295356890436806,0.0,0.044808308324379514,0.0,0.0,-0.6655179042074926,0.32371971076210365,0.0012576308669103,-0.6344897462977709
mod 59_3,0.0,0.23966163587103242,0.08660431415619134,0.0747526587986152,0.0,-0.14398904974080168,-0.6034456965071795,0.0,-0.06206321153658541,0.5197608954080174,-0.5018237757254165,-0.5319844233712472,0.0
mod 60_1,0.5860056201273887,0.0,0.14084527610686903,-0.36699343450232785,0.11873252861719465,0.28491100862010155,0.4275978766726856,0.0,0.0,0.0,0.0,0.3369156001140217,0.7007098055632204
mod 60_2,-0.719196549691486,-0.291827628802142,-0.27720157631214565,0.158057748199283,-0.11618281156435105,0.0,0.0,0.0,0.0483069780019071,-0.6814680254855536,0.3651697588215439,0.030042432819601252,-0.5237391284220343
mod 60_3,0.0,0.30864417821810697,0.06242556224792845,0.04287357758220778,0.0,-0.07329455393613134,-0.5607971288925592,0.0,-0.20983575351729514,0.46554326290300335,-0.5287661011619537,-0.5297463553024406,0.0
mod 61_1,0.5329186780153127,0.0,0.08541479900398573,-0.3186443680784657,0.06626647022322994,0.1875799840590579,0.4405332798336726,-0.05533265061917904,0.017215031737167753,0.0,0.01495663727467462,0.40796593226089695,0.7934126285346114
mod 61_2,-0.682545433218204,-0.1979078858277682,-0.26291336125242465,0.08548560960801492,-0.05412713399858605,0.0,0.010985700142771105,0.0,0.0,-0.7131616097860809,0.3026737465944693,0.0,-0.6471275634031386
mod 61_3,0.0,0.2679558091721558,0.12920896456616607,0.08362174743636591,0.0,-0.1415181680968557,-0.6050621432226103,0.022051302209905536,-0.08977297867500589,0.5421353929338821,-0.5090443600761543,-0.4593423689421278,0.0
mod 62_1,0.47035871950269365,0.0,0.10421565772589142,-0.24853558333532513,0.2773909509558184,0.25642210702828205,0.4132623538725763,-0.09717798583314771,0.0,0.0,0.049407005986393505,0.361039318226574,0.8053402422918698
mod 62_2,-0.6754490418619512,-0.16474354895255736,-0.24686492484767222,0.0680246613461349,-0.2679647421983054,0.0,0.036455671067096,0.0,0.07332255508048652,-0.6868285443236131,0.32864847823413423,0.003507669076671175,-0.6287822486326554
mod 62_3,0.0,0.26362540022503705,0.0932450944571612,0.04958646319277018,0.0,-0.06275719999550948,-0.5919647861137728,0.06635779119381187,-0.18279363394950937,0.5147406458728133,-0.5186936242467856,-0.5048839243841183,0.0
mod 63_1,0.5211713932723407,0.0,0.14998509215048716,-0.2360471762010076,0.2247279822067953,0.2719233245683816,0.4408092853505869,-0.027599607177670113,0.0,0.0,0.017700795742849544,0.29109368249287304,0.8252366498543309
mod 63_2,-0.6322925389075617,-0.12794494653675006,-0.3062049164648872,0.012653339241018916,-0.2444794949312554,0.0,0.0,0.0,0.14064866900086195,-0.6706585998804007,0.31998728699462514,0.1139613105804361,-0.6481395126608575
mod 63_3,0.0,0.22528286422388574,0.10554724490853232,0.1115413311785219,0.0,-0.06916278174524107,-0.5948708966621462,0.030869364574914793,-0.20444929947741441,0.46095102076930516,-0.507067632369875,-0.5481391242030494,0.0
mod 64_1,0.5266474829528955,0.0,0.05884498591841092,-0.33923183701789883,0.15365683609342,0.29861439780617893,0.4523375796989391,0.0,0.0,0.0,0.06507671192007365,0.2551815491979363,0.8089839421177515
mod 64_2,-0.7276263159304089,-0.17406179898180954,-0.2564920150182658,0.11551525662337722,-0.16131060156872293,0.0,0.02303786993903221,0.0,0.06447226427007781,-0.6926369238733328,0.24375242124661847,0.13562791105668529,-0.6347368863468953
mod 64_3,0.013914880663976949,0.23210502114914958,0.09772901551769461,0.0380203276604107,0.0,-0.08556970682641125,-0.6201599367529845,0.07817122107425771,-0.18421042338902618,0.46099625386170373,-0.46215162509011504,-0.5579161613675695,0.0
mod 65_1,0.5181016409866841,0.0,0.19052960088302665,-0.36657845398408817,0.06428049399776738,0.2582434834635165,0.43025056336479756,-0.08338089546221686,0.04845314215869936,0.0,0.05833438245686655,0.3455515088462154,0.6918568229998356
mod 65_2,-0.6979421354620331,-0.22774561262443524,-0.28266653849816675,0.14155631924135828,-0.05570148159184149,0.0,0.012520143318887995,0.0,0.0,-0.7559145175199726,0.25483369872589123,0.01996487895172786,-0.5556376186373174
mod 65_3,0.026454468213749895,0.2905517669157324,0.04097749089737433,0.030532595050810782,0.0,-0.13367183601274504,-0.5642891974826488,0.10371906385404821,-0.18857420919438922,0.5125164080058185,-0.4897233670638418,-0.47756675674459187,0.0
mod 66_1,0.5104759748946015,0.0,0.08023119501454852,-0.39606267030174785,0.10442205008239144,0.19394351087337122,0.4259932823223243,-0.12548128543320447,0.00033022744412623806,0.0,0.01496920807000986,0.30336828387445713,0.7815515568147611
mod 66_2,-0.6386746741274444,-0.16623084570558805,-0.2734197940729828,0.1686566450414625,-0.06269103771662395,0.0,0.01860000969480452,0.0,0.0,-0.7487851034977446,0.32468947078121063,0.01900613159225016,-0.5839060261489935
mod 66_3,0.0,0.22471281227940862,0.1507609601814411,0.06718795195444495,0.0,-0.18753347816781565,-0.6041432165532697,0.0006319113264396836,-0.14323022006681005,0.5132259032961366,-0.5274008751248198,-0.45710790836960696,0.0
mod 67_1,0.5387443813938353,0.0,0.09636483292227863,-0.33787225101687435,0.1086713545516196,0.1760756454910971,0.44535784048187543,-0.020999974075314645,0.08119158579983134,0.0,0.011176608259340352,0.3544648236151837,0.7672351642203845
mod 67_2,-0.6734223538961966,-0.20568266822851639,-0.22161774331073258,0.09133181033531602,-0.15715918197366122,0.0,0.027839465443044695,0.0,0.0,-0.686752559317507,0.34075243053789234,0.051399474498114134,-0.6105075123184364
mod 67_3,0.0,0.18164974997589878,0.12919466355604634,0.07941349210831726,0.0,-0.18315284283418826,-0.6146904224080957,0.0,-0.13525030892850326,0.47880873282368586,-0.5137592262385814,-0.5137397877403476,0.0
mod 68_1,0.5263230113058903,0.0,0.14197711586238868,-0.40815296143896385,0.1916091549777097,0.16419017195536315,0.42922664144880635,0.0,0.0,0.0,0.0085103380842628,0.37877511721655194,0.745926203006539
mod 68_2,-0.704858012947241,-0.14604768796528797,-0.27953545978663286,0.19218260080422592,-0.18844396201320104,0.0,0.05641536185518416,0.0,0.10166254726001527,-0.6802907907774413,0.317515405216698,0.018127402693480704,-0.5545572320280044
mod 68_3,0.0031492859802117953,0.2148335777865864,0.13231921327711396,0.057070561224982774,0.0,-0.13164824283893406,-0.6095879709187056,0.0,-0.1807820976833905,0.4821477998656836,-0.5191336107111081,-0.5093935479786115,0.0
mod 69_1,0.5493052683493216,0.0,0.14297099681724265,-0.38594206789097135,0.11494827673911491,0.15826069427863312,0.44878949187322414,-0.05087719201181532,0.0,0.0,0.0,0.35534927188207116,0.7736652369077217
mod 69_2,-0.6600662511752334,-0.15050902286143342,-0.2332396985208939,0.2153945878874649,-0.10569101997061531,0.0,0.05047087829986987,0.0,0.018800117238430003,-0.7306767666481111,0.31171439672040874,0.06314596131509063,-0.5786127671520741
mod 69_3,0.0,0.21667033109547562,0.031831056682297854,0.0,0.0,-0.13713698079201614,-0.6188660396973957,0.02342368267333525,-0.18253694804819148,0.5148763410984424,-0.447996277235798,-0.5499013065839585,0.0
mod 70_1,0.5421304599277158,0.0,0.12873181904962364,-0.3047768836512918,0.15582121066997567,0.24668138712101612,0.40198460948527864,-0.07240817485262743,0.0,0.0,0.01812994259492948,0.38378120735363025,0.7794567517306977
mod 70_2,-0.6206239731487191,-0.13950562978202682,-0.2941902048213925,0.023175849335175476,-0.2219241580879524,0.0,0.02081027849568294,0.0,0.03797033727989573,-0.7457563936884837,0.3015511971422784,0.0,-0.6086560298636664
mod 70_3,0.0,0.21070932448351454,0.13958478531336965,0.13313379596095856,0.0,-0.17264614325033648,-0.6084808763811718,0.0,-0.1807648404497835,0.4941628237753475,-0.4907815417073565,-0.4542698458853984,0.0
mod 71_1,0.5875064375139631,-0.009515246751094638,0.11470824476992282,-0.38295182295210417,0.11177160431026568,0.18827301865222296,0.4314927935327139,-0.009069737664440714,0.01566270410863,0.0,0.00022762534036994988,0.36160169842590195,0.7500436941736537
mod 71_2,-0.7075433189626767,-0.062006539934110726,-0.20533997414712368,0.16274733110403994,-0.09326133004188507,0.0,0.05059462071780837,0.0,0.005017049662223661,-0.7871897990190885,0.31020816299690107,0.0,-0.5628199148690173
mod 71_3,0.0,0.23687191914551023,0.06418879141012891,0.0038838691068932983,0.0,-0.17022350052612384,-0.6104946437141695,0.0,-0.19205454388621396,0.5278818366317922,-0.4869781828517782,-0.44898683658691646,0.0
mod 72_1,0.49476545498233493,0.0,0.09673390346349904,-0.25729006010037253,0.2204030568772769,0.23628863470855077,0.4475135047212214,-0.020206314071606973,0.011813675144329122,0.0,0.008150137546259113,0.3980412547277595,0.7873382131574095
mod 72_2,-0.6477773175514032,-0.30992627089626545,-0.24730271536228515,0.09101077089059749,-0.20585041994952796,0.0,0.0,0.0,0.0,-0.6617633623158207,0.3636297879393917,0.0,-0.5954811955269622
mod 72_3,0.0,0.31308262354217714,0.08959706284641016,0.028225962689594777,0.0,-0.15438033022590375,-0.5589170173924802,0.0,-0.14915134937620683,0.46834500654709155,-0.5818966515264599,-0.48417036071359953,0.0
mod 73_1,0.5209067676623356,0.0,0.0,-0.299295698373973,0.20598967953891387,0.2011178389611206,0.3813361546978505,-0.15065900518359082,0.04255555259880765,0.0,0.012898328769566975,0.3670237011492774,0.812222841047566
mod 73_2,-0.6683373891477674,-0.24950260699499463,-0.15445268337568913,0.0120975442349369,-0.18361480489631704,0.0,0.057821770971649755,0.0,0.0,-0.677891043068826,0.34039079650787085,0.0,-0.6547646342783671
mod 73_3,0.0,0.2985738235418319,0.11247131335840845,0.09773647319343756,0.0,-0.15045443998300465,-0.5946613305263702,0.008610556001997668,-0.1306734578904286,0.4601723323803264,-0.5408360675286443,-0.47675114401078345,0.0
mod 74_1,0.4641979375079649,0.0,0.18585768593840293,-0.41207689471537423,0.15158555604595217,0.13605815756966874,0.446431594197512,-0.04939760182948921,0.0,0.0,0.01459537281668774,0.3777665887657638,0.7754203212705476
mod 74_2,-0.6650915786512595,-0.16223663266987567,-0.2702975571560497,0.18848997401310838,-0.13924160804976818,0.0,0.0,0.0,0.0,-0.7209009569687477,0.3568790012350363,0.013935543996476354,-0.5562863768100061
mod 74_3,0.016398675042238055,0.23286616300478505,0.03306312577202772,0.00902677648203749,0.0,-0.12327346170336116,-0.5861998103272982,0.0,-0.13141522555250618,0.5136363834470499,-0.5579679076635146,-0.523233173131394,0.0
mod 75_1,0.4490526544373925,0.0,0.15882894970342043,-0.3645164584146339,0.07918190697518133,0.24724660191673611,0.4822447019291326,-0.0034090069918720836,0.029625812887367802,0.0,0.0,0.36281216611141087,0.7614306498509297
mod 75_2,-0.5609749637189196,-0.19758599077261008,-0.32167697828761777,0.09576279068277614,-0.09960145576839724,0.0,0.0,0.0,0.0,-0.7074871428639385,0.3795024861202542,0.029646978920138064,-0.6408770015059123
mod 75_3,0.0,0.25149451889869745,0.1478287476035688,0.12152048023855495,0.0,-0.142132606201007,-0.601915060248393,0.0,-0.13611292834013208,0.4593205468340549,-0.5054882818473927,-0.5212502674348999,0.0
mod 76_1,0.4942243929835323,0.0,0.1687566710518359,-0.4071344452280946,0.041051540286085826,0.18476288739525407,0.4428013338907038,-0.08090520643239747,0.06230931065735271,0.0,0.03893850739655699,0.30845646562901835,0.7830474081657083
mod 76_2,-0.5893419615876405,-0.07239010511297486,-0.34719333401982605,0.21179093021329762,-0.10146080874939659,0.0,0.027251047336101467,0.0,0.0,-0.7274833996030656,0.35317735119104715,0.048624561807009706,-0.6196131702061298
mod 76_3,0.0,0.12106121273093719,0.1423243682355941,0.028135138728371485,0.0,-0.17742916929554126,-0.6094735070304045,0.0,-0.13101321528978693,0.5045688151825986,-0.5583840846071231,-0.5031194423356962,0.0
mod 77_1,0.48133115154763334,0.0,0.2437455050854667,-0.3545994007515561,0.14101635496312245,0.2178408541590051,0.45286760967150247,-0.08578628918474837,0.0013257082056846105,0.0,0.0,0.3671944203768019,0.710151258248383
mod 77_2,-0.6707490396054813,-0.2236717159936457,-0.33001755722433335,0.12183226232154415,-0.11218991944763608,0.0,0.020876256107557216,0.0,0.0,-0.6883510777306308,0.3843694063705716,0.0,-0.540475894717722
mod 77_3,0.0,0.25429995736397426,0.08025866699947866,0.051035057033358144,0.0,-0.15599192992404085,-0.6285533711957819,0.059952401531934325,-0.1434918265063321,0.49288722151627395,-0.5158278792169935,-0.4438057188867277,0.0
mod 78_1,0.52744957939675,0.0,0.20550117185598266,-0.33894558200205827,0.13248979313957127,0.1910440869938309,0.4489697553218037,-0.0064412322666691415,0.0,0.0,0.0037638761824790178,0.3610908309302858,0.7680142767214317
mod 78_2,-0.6936394419847088,-0.2126133770174147,-0.3487660350844301,0.07032249504312194,-0.059247925396930565,0.0,0.04603337942210527,0.0,0.006792369462604465,-0.6903020410111574,0.300568046333715,0.0,-0.5730066748146687
mod 78_3,0.0,0.2967020840943486,0.08483933896017738,0.12591593186849104,0.0,-0.0883113602819153,-0.6204459446162927,0.09831105230127163,-0.12704451111761714,0.5112015847568077,-0.4699251146603778,-0.44320520903437705,0.0
mod 79_1,0.5439295600557366,0.0,0.15867345177954997,-0.26742554184088235,0.13034350126344593,0.2601691473464129,0.42215415811270796,-0.06277264078260038,0.05121929407410005,0.0,0.0,0.34669085571384023,0.7906589792267471
mod 79_2,-0.643002103412958,-0.2560671673555623,-0.26405404323916914,0.09652431142636218,-0.14971111353497982,0.0,0.00199010935739961,0.0,0.002736973994229066,-0.7154046478171755,0.3540558652278413,0.023633229830514472,-0.594579580752117
mod 79_3,0.0,0.2838183265710979,0.08966522426519911,0.03377949018042453,0.0,-0.16597559292952127,-0.5647390463442602,0.0,-0.22685850933542703,0.4317624788356682,-0.544638562887908,-0.4939573203700719,0.0
mod 80_1,0.5144735489368372,0.0,0.11393635510560836,-0.40101054124806285,0.16825247890932243,0.16719618591518154,0.40804279676499794,-0.02002040633976885,0.0,0.0,0.0018926128390478697,0.35983181095279076,0.7989764463904728
mod 80_2,-0.5995367493154223,-0.11894997420572871,-0.2844287910533884,0.2127341484525494,-0.2134349208329558,0.0,0.09521745935423832,0.0,0.020669804800944387,-0.6750739267321757,0.36234790228270436,0.05556947598196304,-0.6154526638384301
mod 80_3,0.0,0.1449125882037114,0.10725112240438431,0.0029831612341600366,0.0,-0.20427106256023625,-0.6212257658056756,0.0,-0.15098553966883027,0.4685749162783446,-0.5645744603461738,-0.5169427083254433,0.0
mod 81_1,0.5456868678575999,0.0,0.10144800577407889,-0.4736531111524845,0.09269966654576955,0.16323616899973664,0.4073717489108672,0.0,0.0,0.0,0.08522231866585064,0.31497895929091846,0.780836062233069
mod 81_2,-0.6925341130714264,-0.19877816869546983,-0.28113587999996537,0.1986788275102112,-0.1940629723841631,0.0,0.04756402007288343,0.0,0.08409920917993755,-0.6947564911180301,0.23295352982573947,0.04989395421389793,-0.6059110547760844
mod 81_3,0.0,0.2808234952742182,0.12228998554634372,0.09555856613711601,0.018645657545178964,-0.09731492023756219,-0.5848671168689467,0.0,-0.23960274398903045,0.5042737166116633,-0.453725260305764,-0.4889250709823485,0.0
mod 82_1,0.5201032327428983,0.0,0.18810256492202743,-0.38189722106968416,0.0756551287220333,0.1513461605637232,0.420537268491655,-0.10232363423555038,0.01877252568008702,0.0,0.058549100057633266,0.369087489955406,0.7662016872850249
mod 82_2,-0.664958420042462,-0.09966553565396431,-0.3329056362680238,0.17866502687213473,-0.09163190708004805,0.0,0.0659895131578174,0.0,0.0,-0.758417919812657,0.2956579571850608,0.010229155268671436,-0.5525080512253553
mod 82_3,0.0,0.22554303527347033,0.07525565275515388,0.013058883768276694,0.0,-0.11645718633483063,-0.5985125755695465,0.055859080435877166,-0.18894555628492984,0.5161159965491905,-0.5444113950847398,-0.4969884898721363,0.0
mod 83_1,0.5345531036837592,0.0,0.19093070127524517,-0.38549220550018937,0.10576154732854026,0.14497375545366817,0.4500499044047189,-0.028366631057098645,0.0,0.0,0.04033760807854525,0.38647884815793343,0.7538661598216233
mod 83_2,-0.6547954564952359,-0.1339965251411754,-0.30192281483861344,0.15663612207303357,-0.0844509986402225,0.0,0.0328560060917169,0.0,0.0,-0.7670139611292625,0.303293109277804,0.03423695963990929,-0.5695497835047628
mod 83_3,0.0,0.21111896813012881,0.08346631117678699,0.08240534101569233,0.0,-0.1356899982527142,-0.587890633971967,0.0,-0.11271000353794275,0.5177679689389713,-0.5040446899776356,-0.5496604843425329,0.0
mod 84_1,0.526625390402854,0.0,0.09919350497086132,-0.382615991115743,0.1012299493851252,0.172196640161611,0.39470833362651925,-0.048428586398958834,0.05970418870449573,0.0,0.00744171955663735,0.32023750614977925,0.8313899775138248
mod 84_2,-0.6198032912058219,-0.14452128694202424,-0.15630395160403202,0.23349166042333477,-0.16992268479218314,0.0,0.07613664565741125,0.0,0.012710021401225716,-0.727279487217686,0.30506279754796933,0.10123758083268451,-0.6340870561894878
mod 84_3,0.0,0.22529031079182285,0.0,0.0,0.0,-0.1752824075395775,-0.5836258046096233,0.03756232257577775,-0.2336909087168923,0.48388951750604775,-0.4801793010271828,-0.5479367108603939,0.0
mod 85_1,0.5381331629238836,-0.00550526966052475,0.08357363878790235,-0.2757320151670585,0.2141547019107199,0.2467117589530101,0.4696759353953154,-0.068902941471517,0.0,0.0,0.06666490142510612,0.3147872977652801,0.7894457659408177
mod 85_2,-0.6651007742551519,-0.1204596135092753,-0.2822626065796934,0.0380949768805978,-0.22941271022003265,0.0,0.028378304859198823,0.0,0.0,-0.7278940430646922,0.27138770329945777,0.06217488195116845,-0.594428304039544
mod 85_3,0.0,0.22308208443328242,0.13469804062924334,0.09614898351788116,0.0,-0.1493513481200096,-0.6052036044970031,0.0,-0.15685304849855017,0.46982902659251946,-0.49336592496509596,-0.517418423421719,0.0
mod 86_1,0.49404987038548337,0.0,0.15672241734043774,-0.41820631267067454,0.08615649594017911,0.23226944664812063,0.4831484933947891,-0.07618184918904744,0.0,0.0,0.0,0.3259084891993074,0.7357817698319
mod 86_2,-0.6205916704934632,-0.16844429542171513,-0.29890878962764467,0.18888344474551563,-0.11235017424732949,0.0,0.0,0.0,0.03784967434262828,-0.7477866616710659,0.35391467246075836,0.018543934420951622,-0.5668144503173483
mod 86_3,0.010361416288050955,0.25288397938184565,0.09578016052231617,0.023794916224460658,0.0,-0.16782041140030945,-0.6091496611194728,0.0,-0.1744333582253788,0.48129619686983,-0.533276685444291,-0.4936199247771093,0.0
mod 87_1,0.5399386069864148,0.0,0.0,-0.3823624675087769,0.10201466879718901,0.2762211727058231,0.4396506348856338,-0.10377925082170641,0.07832321687334087,0.0,0.015572564261150446,0.27311485956631815,0.7341825272272918
mod 87_2,-0.6972828092710831,-0.2028024203479137,-0.21254552104425986,0.14972339323613856,-0.16545975152729653,0.0,0.0,0.0,0.0,-0.7616811518151994,0.2592700194599758,0.0,-0.5573024055068262
mod 87_3,0.0,0.28568199220718976,0.18398380992862637,0.057860231627558135,0.0,-0.18152725844410758,-0.5801995614979231,0.0,-0.20144566996531443,0.5089992075292844,-0.4632152883216606,-0.45145034188407734,0.0
mod 88_1,0.528348958320377,0.0,0.16099068878352848,-0.27340853492603584,0.1372938647360192,0.24132280675393045,0.43508641059533476,-0.06909639075804153,0.0,0.0,0.13709688813051638,0.3128899771681397,0.7845495999214052
mod 88_2,-0.7219523794686099,-0.06311007968070181,-0.33441655293099454,0.0610361962820813,-0.16241866974630423,0.0,0.020267836184223575,0.0,0.061361531452907465,-0.7650665924604791,0.2126712217632884,0.0,-0.5540435970740507
mod 88_3,0.01273226108989215,0.1729893273337162,0.15038425313197337,0.06716031334709796,0.0,-0.14517055227566758,-0.6259575926095505,0.0,-0.19756603820129728,0.5229493110198484,-0.4902557666018757,-0.46256770952641124,0.0
mod 89_1,0.5815948704805279,0.0,0.16064666574812683,-0.3411453245556829,0.11254213190265175,0.21649934639223473,0.43295813375465203,0.0,0.058606351810250513,0.0,0.0,0.32468801303775857,0.7642032204638403
mod 89_2,-0.6094656562409054,-0.24400079866049554,-0.2778124731268094,0.14382395847557938,-0.0658641676718873,0.0,0.012906049900394113,0.0,0.006038278383232469,-0.7939637677532281,0.2977588582619474,0.053065232764040404,-0.5662015147983225
mod 89_3,0.0,0.3542388541858941,0.03299269783543713,0.053707063040020576,0.0,-0.11980339937691886,-0.5522290749723149,0.06896008970903818,-0.2219825490715182,0.4780187997893597,-0.4718228000151703,-0.5104623896993592,0.0
mod 90_1,0.5216973951130243,0.0,0.09033343353867032,-0.304355782860129,0.21336786465857707,0.20641412982388488,0.4067512308107949,-0.02612979996304797,0.0,0.0,0.07972152939115011,0.37204023076215276,0.7971820975145899
mod 90_2,-0.7024686145932546,-0.12788071290791111,-0.26432370128986077,0.10042619125609191,-0.27913420669550093,0.0,0.06472170827680972,0.0,0.005050693638486167,-0.6359278603598592,0.28968770572456776,0.07316568457194446,-0.6361415279081776
mod 90_3,0.0,0.19016883975573462,0.15159440892014045,0.0433736886380856,0.0,-0.20011011578711382,-0.5869077637153159,0.0,-0.1005551196836278,0.4814187776638468,-0.5314821485391501,-0.5275196413545292,0.0
mod 91_1,0.5289000705027115,0.0,0.12649225498710212,-0.369493174161162,0.07714082265357224,0.24864509960493414,0.4805833555303781,-0.019194794633241436,0.04520256025773664,0.0,0.0021827975471494366,0.3791323269036752,0.6879446450139581
mod 91_2,-0.6997762238082658,-0.2954523087266298,-0.23370350859311445,0.12989457054156134,-0.10701737890574274,0.0,0.0,0.0,0.0,-0.6839451857500165,0.3080147434433105,0.0,-0.5699587493873144
mod 91_3,0.0021924022402683365,0.29705589174337854,0.07208918921317109,0.0358399004940828,0.0,-0.09419075565136618,-0.6207666769214546,0.0,-0.20980415966451668,0.4773567156443595,-0.5011314556358301,-0.4618408696955559,0.0
mod 92_1,0.47349620655966906,0.0,0.16991627828353878,-0.3340126842564626,0.3345402631347144,0.20328607418464234,0.43243172541114944,-0.026300891928764846,0.046406826421454696,0.0,0.09790862185428982,0.3141539800018363,0.7442127096594541
mod 92_2,-0.6390868211933746,-0.2821574861792487,-0.2926427027090049,0.08828840684034092,-0.31597314238796753,0.0,0.0067605085215888,0.0,0.0,-0.6960723810575442,0.23162266853816382,0.08002478519984454,-0.583212261925417
mod 92_3,0.0,0.3276651085343819,0.08003219887396314,0.06639656032063855,0.0,-0.20182652593783676,-0.5672441065092199,0.0011782395367249184,-0.12462940033509806,0.48223752187386293,-0.5072649347843506,-0.5176408877334447,0.0
mod 93_1,0.5782081441057221,0.0,0.11137322662948179,-0.2757757796520338,0.1454168360600084,0.2570693881860845,0.4346027022176161,-0.10279603499271091,0.0,0.0,0.02257893220674527,0.36769555369223433,0.7488144772710899
mod 93_2,-0.6666456862462756,-0.3296665127295871,-0.2737076090854904,0.035891664317086916,-0.2033002909428708,0.0,0.0,0.0,0.007648643328632545,-0.6740729148489082,0.28990318569283374,0.02109295591593063,-0.5948496444204204
mod 93_3,0.0,0.3446268509205858,0.11615250395240938,0.11140727942504952,0.0,-0.18727960615743555,-0.5282502300569659,0.0,-0.13384588479171028,0.42977694589001453,-0.49399532066128105,-0.5455355496005883,0.0
mod 94_1,0.5665373902926694,0.0,0.14035109265719758,-0.3669647394350221,0.11360486101799117,0.22114172959834416,0.4496197626378255,0.0,0.0,0.0,0.031021922172762676,0.2803699789673918,0.7947294414127464
mod 94_2,-0.7175318905741518,-0.18097530472461568,-0.3168577018011455,0.18530431487273352,-0.12431232807554102,0.0,0.004704355849325263,0.0,0.07268302352096354,-0.6372551462788059,0.3469021939689592,0.11428673004730587,-0.5619282093271112
mod 94_3,0.0,0.24727575136271523,0.12188203719116728,0.014619887504820659,0.0,-0.09830715144629204,-0.5939448166354767,0.006438343130953787,-0.211398583967258,0.43797492662508036,-0.5553486620272922,-0.5324635380971039,0.0
mod 95_1,0.45805463222484033,0.0,0.1339000406362069,-0.43343692191122013,0.10063310444927126,0.21800094566562903,0.4542503809702111,-0.01646491322005618,0.054264509812311,0.0,0.0,0.3258244828557406,0.778154493228345
mod 95_2,-0.5494655030072484,-0.1611911845826579,-0.24755410429621225,0.2272716510698041,-0.17873044379749842,0.0,0.0013446484190009756,0.0,0.0,-0.7752102075949834,0.31777291426487075,0.030542472324824082,-0.5873501167286301
mod 95_3,0.0,0.30391097400841655,0.07952910144415017,0.00795211232755512,0.0,-0.14468169594047825,-0.575600723600077,0.0,-0.1935797724888758,0.5033219125831481,-0.43505320342684034,-0.5182206313401777,0.0
mod 96_1,0.5427026012398379,0.0,0.17432974148989608,-0.34308068909727296,0.11220256715388144,0.2299495165458539,0.44103559850413837,-0.07007947367615572,0.0,0.0,0.08133232996238872,0.3797955862270563,0.690266874820966
mod 96_2,-0.7409073976817899,-0.18339499792338482,-0.3116294368286415,0.15235632932656692,-0.04630113037382289,0.0,0.05033395331335817,0.0,0.0,-0.7537566232299525,0.23520059651655548,0.0,-0.5560618357368179
mod 96_3,0.028088235033187272,0.2791682465649172,0.09650551152662827,0.02855989401697518,0.0,-0.14294600675522898,-0.6103946426849999,0.10417295900206408,-0.12789711211282898,0.5467337079413034,-0.49020106949531844,-0.4587608349375691,0.0
mod 97_1,0.5449881469567528,0.0,0.1465395630400301,-0.36107486677498074,0.13920141649475445,0.2024030755925111,0.42508766388353975,-0.02191966962925984,0.0,0.0,0.0,0.42755667652462176,0.7239324601210758
mod 97_2,-0.6853364193836137,-0.2758396543159599,-0.2014570199450075,0.13180116610458043,-0.09042412077937255,0.0,0.03446347362698129,0.0,0.0,-0.7260244057450312,0.389744434152484,0.003325599896291941,-0.5755975590087727
mod 97_3,0.0,0.30210700021473674,0.01159483822112633,0.03850125588394192,0.0,-0.2643959245165262,-0.5549039826047679,0.011909504318653076,-0.08974106928033572,0.47639476069857994,-0.5386606047896735,-0.5270175538820061,0.0
mod 98_1,0.5365600249859224,0.0,0.21660056414033146,-0.40094678572940695,0.10980940280649436,0.15834485273565804,0.4376119441259535,-0.012524909681667248,0.0,0.0,0.051592831766106115,0.3358735452734141,0.7556746551869153
mod 98_2,-0.6792502708034575,-0.252940519422278,-0.2785927663350726,0.17836911265293895,-0.10986151502075814,0.0,0.026537473687134158,0.0,0.0,-0.7095051016561899,0.30020899412253194,0.08252823530137655,-0.5690779143542452
mod 98_3,0.0,0.2878441266074302,0.0006077209728703749,0.023514435765199022,0.0,-0.14147046260080856,-0.5818745515043139,0.01892241504415279,-0.10068487464580744,0.5171154261584062,-0.5197261242905831,-0.550921836390645,0.0
mod 99_1,0.5639006281702537,0.0,0.0907396125143171,-0.39594467676601813,0.11754957644728756,0.13943096430083812,0.3984205871288121,-0.15125309170241916,0.0,0.0,0.010426423937673741,0.33090754071092215,0.7590407601663823
mod 99_2,-0.6444387661889361,-0.14452458593891274,-0.24430756001668463,0.1668894893411217,-0.1500826392134524,0.0,0.05968873400069053,0.0,0.03247533458983878,-0.7238545457777199,0.3171052756040324,0.07021252240935676,-0.5950672612148292
mod 99_3,0.0,0.15770443870199294,0.12253772790606808,0.0378008823226832,0.0,-0.15523274134319118,-0.5979887948919768,0.05392810522938,-0.16113348434968153,0.5050898799274273,-0.48811855810138166,-0.553137385299329,0.0
mod 100_1,0.5413172459119283,0.0,0.10311382246989612,-0.38864903189067557,0.0821897749073968,0.15648329073985257,0.4531110067409597,-0.07782081774427552,0.0,0.0,0.011927238414125196,0.3649507740766179,0.7744826245091364
mod 100_2,-0.6820252981731791,-0.17940071414481942,-0.19276487068627218,0.17741804207615455,-0.06453322855825652,0.0,0.0,0.0,0.0,-0.7551101934574558,0.3641488298009509,0.008800537425090982,-0.5679704922417068
mod 100_3,0.0,0.24073649399477912,0.03315761856414046,0.016972452453756885,0.0,-0.18838507536018123,-0.5521562065292203,0.0,-0.11322289904252615,0.5089006972266616,-0.5720902886297531,-0.5139039086557636,0.0
